digraph Tree {
node [shape=box, style="filled, rounded", color="black", fontname=helvetica] ;
edge [fontname=helvetica] ;
0 [label="Seizures [SYMP_0000124] <= 0.0\ngini = 0.004\nsamples = 47242\nvalue = [47158, 24, 46, 14]\nclass = no data", fillcolor="#e58139"] ;
1 [label="Jaundice [HP_0000952] <= 0.0\ngini = 0.003\nsamples = 47203\nvalue = [47136, 14, 44, 9]\nclass = no data", fillcolor="#e58139"] ;
0 -> 1 [labeldistance=2.5, labelangle=45, headlabel="True"] ;
2 [label="Vomiting [HP_0002013] <= 0.0\ngini = 0.003\nsamples = 47197\nvalue = [47133, 13, 44, 7]\nclass = no data", fillcolor="#e58139"] ;
1 -> 2 ;
3 [label="Subjective fever [EUPATH_0000100] <= 0.0\ngini = 0.002\nsamples = 45356\nvalue = [45320, 1, 31, 4]\nclass = no data", fillcolor="#e58139"] ;
2 -> 3 ;
4 [label="gini = 0.0\nsamples = 32043\nvalue = [32043, 0, 0, 0]\nclass = no data", fillcolor="#e58139"] ;
3 -> 4 ;
5 [label="Cough [SYMP_0000614] <= 0.0\ngini = 0.005\nsamples = 13313\nvalue = [13277, 1, 31, 4]\nclass = no data", fillcolor="#e5813a"] ;
3 -> 5 ;
6 [label="Muscle aches [EUPATH_0000252] <= -0.25\ngini = 0.008\nsamples = 6858\nvalue = [6831, 1, 24, 2]\nclass = no data", fillcolor="#e5813a"] ;
5 -> 6 ;
7 [label="Abdominal pain [HP_0002027] <= -0.25\ngini = 0.009\nsamples = 5961\nvalue = [5934, 1, 24, 2]\nclass = no data", fillcolor="#e5823a"] ;
6 -> 7 ;
8 [label="Diarrhea [DOID_13250] <= 0.0\ngini = 0.011\nsamples = 4718\nvalue = [4693, 1, 22, 2]\nclass = no data", fillcolor="#e5823a"] ;
7 -> 8 ;
9 [label="Headache [HP_0002315] <= 0.0\ngini = 0.011\nsamples = 4491\nvalue = [4466, 1, 22, 2]\nclass = no data", fillcolor="#e5823a"] ;
8 -> 9 ;
10 [label="Fatigue [SYMP_0019177] <= -0.25\ngini = 0.013\nsamples = 2417\nvalue = [2401, 1, 13, 2]\nclass = no data", fillcolor="#e5823a"] ;
9 -> 10 ;
11 [label="Anorexia [SYMP_0000523] <= 0.0\ngini = 0.015\nsamples = 2189\nvalue = [2173, 1, 13, 2]\nclass = no data", fillcolor="#e5823a"] ;
10 -> 11 ;
12 [label="Visit type [EUPATH_0000311] <= 0.0\ngini = 0.013\nsamples = 2070\nvalue = [2056, 1, 11, 2]\nclass = no data", fillcolor="#e5823a"] ;
11 -> 12 ;
13 [label="Joint pains [SYMP_0000064] <= 0.0\ngini = 0.012\nsamples = 1630\nvalue = [1620, 1, 8, 1]\nclass = no data", fillcolor="#e5823a"] ;
12 -> 13 ;
14 [label="ITN last night [EUPATH_0000216] <= 0.0\ngini = 0.012\nsamples = 1595\nvalue = [1585, 1, 8, 1]\nclass = no data", fillcolor="#e5823a"] ;
13 -> 14 ;
15 [label="gini = 0.0\nsamples = 5\nvalue = [5, 0, 0, 0]\nclass = no data", fillcolor="#e58139"] ;
14 -> 15 ;
16 [label="gini = 0.013\nsamples = 1590\nvalue = [1580, 1, 8, 1]\nclass = no data", fillcolor="#e5823a"] ;
14 -> 16 ;
17 [label="gini = 0.0\nsamples = 35\nvalue = [35, 0, 0, 0]\nclass = no data", fillcolor="#e58139"] ;
13 -> 17 ;
18 [label="Joint pains [SYMP_0000064] <= 0.0\ngini = 0.018\nsamples = 440\nvalue = [436, 0, 3, 1]\nclass = no data", fillcolor="#e5823b"] ;
12 -> 18 ;
19 [label="gini = 0.018\nsamples = 435\nvalue = [431, 0, 3, 1]\nclass = no data", fillcolor="#e5823b"] ;
18 -> 19 ;
20 [label="gini = 0.0\nsamples = 5\nvalue = [5, 0, 0, 0]\nclass = no data", fillcolor="#e58139"] ;
18 -> 20 ;
21 [label="Visit type [EUPATH_0000311] <= 0.0\ngini = 0.033\nsamples = 119\nvalue = [117, 0, 2, 0]\nclass = no data", fillcolor="#e5833c"] ;
11 -> 21 ;
22 [label="Joint pains [SYMP_0000064] <= 0.0\ngini = 0.037\nsamples = 106\nvalue = [104, 0, 2, 0]\nclass = no data", fillcolor="#e6833d"] ;
21 -> 22 ;
23 [label="gini = 0.037\nsamples = 105\nvalue = [103, 0, 2, 0]\nclass = no data", fillcolor="#e6833d"] ;
22 -> 23 ;
24 [label="gini = 0.0\nsamples = 1\nvalue = [1, 0, 0, 0]\nclass = no data", fillcolor="#e58139"] ;
22 -> 24 ;
25 [label="gini = 0.0\nsamples = 13\nvalue = [13, 0, 0, 0]\nclass = no data", fillcolor="#e58139"] ;
21 -> 25 ;
26 [label="gini = 0.0\nsamples = 228\nvalue = [228, 0, 0, 0]\nclass = no data", fillcolor="#e58139"] ;
10 -> 26 ;
27 [label="Anorexia [SYMP_0000523] <= 0.0\ngini = 0.009\nsamples = 2074\nvalue = [2065, 0, 9, 0]\nclass = no data", fillcolor="#e5823a"] ;
9 -> 27 ;
28 [label="Joint pains [SYMP_0000064] <= 0.0\ngini = 0.009\nsamples = 1983\nvalue = [1974, 0, 9, 0]\nclass = no data", fillcolor="#e5823a"] ;
27 -> 28 ;
29 [label="Fatigue [SYMP_0019177] <= -0.25\ngini = 0.008\nsamples = 1670\nvalue = [1663, 0, 7, 0]\nclass = no data", fillcolor="#e5823a"] ;
28 -> 29 ;
30 [label="Visit type [EUPATH_0000311] <= 0.0\ngini = 0.01\nsamples = 1427\nvalue = [1420, 0, 7, 0]\nclass = no data", fillcolor="#e5823a"] ;
29 -> 30 ;
31 [label="ITN last night [EUPATH_0000216] <= 0.0\ngini = 0.009\nsamples = 1289\nvalue = [1283, 0, 6, 0]\nclass = no data", fillcolor="#e5823a"] ;
30 -> 31 ;
32 [label="gini = 0.0\nsamples = 3\nvalue = [3, 0, 0, 0]\nclass = no data", fillcolor="#e58139"] ;
31 -> 32 ;
33 [label="gini = 0.009\nsamples = 1286\nvalue = [1280, 0, 6, 0]\nclass = no data", fillcolor="#e5823a"] ;
31 -> 33 ;
34 [label="ITN last night [EUPATH_0000216] <= 0.0\ngini = 0.014\nsamples = 138\nvalue = [137, 0, 1, 0]\nclass = no data", fillcolor="#e5823a"] ;
30 -> 34 ;
35 [label="gini = 0.0\nsamples = 1\nvalue = [1, 0, 0, 0]\nclass = no data", fillcolor="#e58139"] ;
34 -> 35 ;
36 [label="gini = 0.014\nsamples = 137\nvalue = [136, 0, 1, 0]\nclass = no data", fillcolor="#e5823a"] ;
34 -> 36 ;
37 [label="gini = 0.0\nsamples = 243\nvalue = [243, 0, 0, 0]\nclass = no data", fillcolor="#e58139"] ;
29 -> 37 ;
38 [label="Fatigue [SYMP_0019177] <= 0.75\ngini = 0.013\nsamples = 313\nvalue = [311, 0, 2, 0]\nclass = no data", fillcolor="#e5823a"] ;
28 -> 38 ;
39 [label="gini = 0.0\nsamples = 145\nvalue = [145, 0, 0, 0]\nclass = no data", fillcolor="#e58139"] ;
38 -> 39 ;
40 [label="Visit type [EUPATH_0000311] <= 0.0\ngini = 0.024\nsamples = 168\nvalue = [166, 0, 2, 0]\nclass = no data", fillcolor="#e5833b"] ;
38 -> 40 ;
41 [label="gini = 0.024\nsamples = 162\nvalue = [160, 0, 2, 0]\nclass = no data", fillcolor="#e5833b"] ;
40 -> 41 ;
42 [label="gini = 0.0\nsamples = 6\nvalue = [6, 0, 0, 0]\nclass = no data", fillcolor="#e58139"] ;
40 -> 42 ;
43 [label="gini = 0.0\nsamples = 91\nvalue = [91, 0, 0, 0]\nclass = no data", fillcolor="#e58139"] ;
27 -> 43 ;
44 [label="gini = 0.0\nsamples = 227\nvalue = [227, 0, 0, 0]\nclass = no data", fillcolor="#e58139"] ;
8 -> 44 ;
45 [label="Fatigue [SYMP_0019177] <= -0.25\ngini = 0.003\nsamples = 1243\nvalue = [1241, 0, 2, 0]\nclass = no data", fillcolor="#e58139"] ;
7 -> 45 ;
46 [label="Diarrhea [DOID_13250] <= 0.0\ngini = 0.004\nsamples = 1054\nvalue = [1052, 0, 2, 0]\nclass = no data", fillcolor="#e58139"] ;
45 -> 46 ;
47 [label="Visit type [EUPATH_0000311] <= 0.0\ngini = 0.004\nsamples = 888\nvalue = [886, 0, 2, 0]\nclass = no data", fillcolor="#e58139"] ;
46 -> 47 ;
48 [label="Anorexia [SYMP_0000523] <= 0.0\ngini = 0.005\nsamples = 804\nvalue = [802, 0, 2, 0]\nclass = no data", fillcolor="#e58139"] ;
47 -> 48 ;
49 [label="Joint pains [SYMP_0000064] <= 0.0\ngini = 0.005\nsamples = 745\nvalue = [743, 0, 2, 0]\nclass = no data", fillcolor="#e5813a"] ;
48 -> 49 ;
50 [label="Headache [HP_0002315] <= 0.0\ngini = 0.006\nsamples = 703\nvalue = [701, 0, 2, 0]\nclass = no data", fillcolor="#e5813a"] ;
49 -> 50 ;
51 [label="ITN last night [EUPATH_0000216] <= 0.0\ngini = 0.007\nsamples = 281\nvalue = [280, 0, 1, 0]\nclass = no data", fillcolor="#e5813a"] ;
50 -> 51 ;
52 [label="gini = 0.0\nsamples = 1\nvalue = [1, 0, 0, 0]\nclass = no data", fillcolor="#e58139"] ;
51 -> 52 ;
53 [label="gini = 0.007\nsamples = 280\nvalue = [279, 0, 1, 0]\nclass = no data", fillcolor="#e5813a"] ;
51 -> 53 ;
54 [label="gini = 0.005\nsamples = 422\nvalue = [421, 0, 1, 0]\nclass = no data", fillcolor="#e58139"] ;
50 -> 54 ;
55 [label="gini = 0.0\nsamples = 42\nvalue = [42, 0, 0, 0]\nclass = no data", fillcolor="#e58139"] ;
49 -> 55 ;
56 [label="gini = 0.0\nsamples = 59\nvalue = [59, 0, 0, 0]\nclass = no data", fillcolor="#e58139"] ;
48 -> 56 ;
57 [label="gini = 0.0\nsamples = 84\nvalue = [84, 0, 0, 0]\nclass = no data", fillcolor="#e58139"] ;
47 -> 57 ;
58 [label="gini = 0.0\nsamples = 166\nvalue = [166, 0, 0, 0]\nclass = no data", fillcolor="#e58139"] ;
46 -> 58 ;
59 [label="gini = 0.0\nsamples = 189\nvalue = [189, 0, 0, 0]\nclass = no data", fillcolor="#e58139"] ;
45 -> 59 ;
60 [label="gini = 0.0\nsamples = 897\nvalue = [897, 0, 0, 0]\nclass = no data", fillcolor="#e58139"] ;
6 -> 60 ;
61 [label="Anorexia [SYMP_0000523] <= 0.0\ngini = 0.003\nsamples = 6455\nvalue = [6446, 0, 7, 2]\nclass = no data", fillcolor="#e58139"] ;
5 -> 61 ;
62 [label="Headache [HP_0002315] <= 0.75\ngini = 0.002\nsamples = 5867\nvalue = [5860, 0, 6, 1]\nclass = no data", fillcolor="#e58139"] ;
61 -> 62 ;
63 [label="Visit type [EUPATH_0000311] <= 0.0\ngini = 0.003\nsamples = 4711\nvalue = [4705, 0, 6, 0]\nclass = no data", fillcolor="#e58139"] ;
62 -> 63 ;
64 [label="Diarrhea [DOID_13250] <= 0.0\ngini = 0.003\nsamples = 4204\nvalue = [4198, 0, 6, 0]\nclass = no data", fillcolor="#e58139"] ;
63 -> 64 ;
65 [label="Abdominal pain [HP_0002027] <= 0.75\ngini = 0.003\nsamples = 4008\nvalue = [4002, 0, 6, 0]\nclass = no data", fillcolor="#e58139"] ;
64 -> 65 ;
66 [label="Fatigue [SYMP_0019177] <= -0.25\ngini = 0.003\nsamples = 3844\nvalue = [3838, 0, 6, 0]\nclass = no data", fillcolor="#e58139"] ;
65 -> 66 ;
67 [label="Joint pains [SYMP_0000064] <= -0.25\ngini = 0.003\nsamples = 2858\nvalue = [2853, 0, 5, 0]\nclass = no data", fillcolor="#e58139"] ;
66 -> 67 ;
68 [label="Muscle aches [EUPATH_0000252] <= -0.25\ngini = 0.004\nsamples = 2774\nvalue = [2769, 0, 5, 0]\nclass = no data", fillcolor="#e58139"] ;
67 -> 68 ;
69 [label="ITN last night [EUPATH_0000216] <= 0.0\ngini = 0.004\nsamples = 2759\nvalue = [2754, 0, 5, 0]\nclass = no data", fillcolor="#e58139"] ;
68 -> 69 ;
70 [label="gini = 0.0\nsamples = 10\nvalue = [10, 0, 0, 0]\nclass = no data", fillcolor="#e58139"] ;
69 -> 70 ;
71 [label="gini = 0.004\nsamples = 2749\nvalue = [2744, 0, 5, 0]\nclass = no data", fillcolor="#e58139"] ;
69 -> 71 ;
72 [label="gini = 0.0\nsamples = 15\nvalue = [15, 0, 0, 0]\nclass = no data", fillcolor="#e58139"] ;
68 -> 72 ;
73 [label="gini = 0.0\nsamples = 84\nvalue = [84, 0, 0, 0]\nclass = no data", fillcolor="#e58139"] ;
67 -> 73 ;
74 [label="Abdominal pain [HP_0002027] <= -0.25\ngini = 0.002\nsamples = 986\nvalue = [985, 0, 1, 0]\nclass = no data", fillcolor="#e58139"] ;
66 -> 74 ;
75 [label="gini = 0.0\nsamples = 573\nvalue = [573, 0, 0, 0]\nclass = no data", fillcolor="#e58139"] ;
74 -> 75 ;
76 [label="Headache [HP_0002315] <= -0.25\ngini = 0.005\nsamples = 413\nvalue = [412, 0, 1, 0]\nclass = no data", fillcolor="#e58139"] ;
74 -> 76 ;
77 [label="gini = 0.0\nsamples = 35\nvalue = [35, 0, 0, 0]\nclass = no data", fillcolor="#e58139"] ;
76 -> 77 ;
78 [label="Muscle aches [EUPATH_0000252] <= -0.25\ngini = 0.005\nsamples = 378\nvalue = [377, 0, 1, 0]\nclass = no data", fillcolor="#e5813a"] ;
76 -> 78 ;
79 [label="gini = 0.0\nsamples = 12\nvalue = [12, 0, 0, 0]\nclass = no data", fillcolor="#e58139"] ;
78 -> 79 ;
80 [label="Fatigue [SYMP_0019177] <= 0.75\ngini = 0.005\nsamples = 366\nvalue = [365, 0, 1, 0]\nclass = no data", fillcolor="#e5813a"] ;
78 -> 80 ;
81 [label="gini = 0.005\nsamples = 363\nvalue = [362, 0, 1, 0]\nclass = no data", fillcolor="#e5813a"] ;
80 -> 81 ;
82 [label="gini = 0.0\nsamples = 3\nvalue = [3, 0, 0, 0]\nclass = no data", fillcolor="#e58139"] ;
80 -> 82 ;
83 [label="gini = 0.0\nsamples = 164\nvalue = [164, 0, 0, 0]\nclass = no data", fillcolor="#e58139"] ;
65 -> 83 ;
84 [label="gini = 0.0\nsamples = 196\nvalue = [196, 0, 0, 0]\nclass = no data", fillcolor="#e58139"] ;
64 -> 84 ;
85 [label="gini = 0.0\nsamples = 507\nvalue = [507, 0, 0, 0]\nclass = no data", fillcolor="#e58139"] ;
63 -> 85 ;
86 [label="Visit type [EUPATH_0000311] <= 0.0\ngini = 0.002\nsamples = 1156\nvalue = [1155, 0, 0, 1]\nclass = no data", fillcolor="#e58139"] ;
62 -> 86 ;
87 [label="gini = 0.0\nsamples = 1060\nvalue = [1060, 0, 0, 0]\nclass = no data", fillcolor="#e58139"] ;
86 -> 87 ;
88 [label="Joint pains [SYMP_0000064] <= -0.25\ngini = 0.021\nsamples = 96\nvalue = [95, 0, 0, 1]\nclass = no data", fillcolor="#e5823b"] ;
86 -> 88 ;
89 [label="Abdominal pain [HP_0002027] <= 0.0\ngini = 0.025\nsamples = 78\nvalue = [77, 0, 0, 1]\nclass = no data", fillcolor="#e5833c"] ;
88 -> 89 ;
90 [label="Fatigue [SYMP_0019177] <= 0.0\ngini = 0.028\nsamples = 71\nvalue = [70, 0, 0, 1]\nclass = no data", fillcolor="#e5833c"] ;
89 -> 90 ;
91 [label="Muscle aches [EUPATH_0000252] <= 0.0\ngini = 0.029\nsamples = 67\nvalue = [66, 0, 0, 1]\nclass = no data", fillcolor="#e5833c"] ;
90 -> 91 ;
92 [label="gini = 0.03\nsamples = 66\nvalue = [65, 0, 0, 1]\nclass = no data", fillcolor="#e5833c"] ;
91 -> 92 ;
93 [label="gini = 0.0\nsamples = 1\nvalue = [1, 0, 0, 0]\nclass = no data", fillcolor="#e58139"] ;
91 -> 93 ;
94 [label="gini = 0.0\nsamples = 4\nvalue = [4, 0, 0, 0]\nclass = no data", fillcolor="#e58139"] ;
90 -> 94 ;
95 [label="gini = 0.0\nsamples = 7\nvalue = [7, 0, 0, 0]\nclass = no data", fillcolor="#e58139"] ;
89 -> 95 ;
96 [label="gini = 0.0\nsamples = 18\nvalue = [18, 0, 0, 0]\nclass = no data", fillcolor="#e58139"] ;
88 -> 96 ;
97 [label="Headache [HP_0002315] <= -0.25\ngini = 0.007\nsamples = 588\nvalue = [586, 0, 1, 1]\nclass = no data", fillcolor="#e5813a"] ;
61 -> 97 ;
98 [label="Joint pains [SYMP_0000064] <= -0.25\ngini = 0.013\nsamples = 304\nvalue = [302, 0, 1, 1]\nclass = no data", fillcolor="#e5823a"] ;
97 -> 98 ;
99 [label="Fatigue [SYMP_0019177] <= -0.25\ngini = 0.008\nsamples = 237\nvalue = [236, 0, 0, 1]\nclass = no data", fillcolor="#e5823a"] ;
98 -> 99 ;
100 [label="Visit type [EUPATH_0000311] <= 0.0\ngini = 0.011\nsamples = 174\nvalue = [173, 0, 0, 1]\nclass = no data", fillcolor="#e5823a"] ;
99 -> 100 ;
101 [label="Abdominal pain [HP_0002027] <= 0.0\ngini = 0.012\nsamples = 159\nvalue = [158, 0, 0, 1]\nclass = no data", fillcolor="#e5823a"] ;
100 -> 101 ;
102 [label="Diarrhea [DOID_13250] <= 0.0\ngini = 0.014\nsamples = 144\nvalue = [143, 0, 0, 1]\nclass = no data", fillcolor="#e5823a"] ;
101 -> 102 ;
103 [label="Muscle aches [EUPATH_0000252] <= -0.25\ngini = 0.015\nsamples = 135\nvalue = [134, 0, 0, 1]\nclass = no data", fillcolor="#e5823a"] ;
102 -> 103 ;
104 [label="ITN last night [EUPATH_0000216] <= 0.0\ngini = 0.015\nsamples = 134\nvalue = [133, 0, 0, 1]\nclass = no data", fillcolor="#e5823a"] ;
103 -> 104 ;
105 [label="gini = 0.0\nsamples = 1\nvalue = [1, 0, 0, 0]\nclass = no data", fillcolor="#e58139"] ;
104 -> 105 ;
106 [label="gini = 0.015\nsamples = 133\nvalue = [132, 0, 0, 1]\nclass = no data", fillcolor="#e5823b"] ;
104 -> 106 ;
107 [label="gini = 0.0\nsamples = 1\nvalue = [1, 0, 0, 0]\nclass = no data", fillcolor="#e58139"] ;
103 -> 107 ;
108 [label="gini = 0.0\nsamples = 9\nvalue = [9, 0, 0, 0]\nclass = no data", fillcolor="#e58139"] ;
102 -> 108 ;
109 [label="gini = 0.0\nsamples = 15\nvalue = [15, 0, 0, 0]\nclass = no data", fillcolor="#e58139"] ;
101 -> 109 ;
110 [label="gini = 0.0\nsamples = 15\nvalue = [15, 0, 0, 0]\nclass = no data", fillcolor="#e58139"] ;
100 -> 110 ;
111 [label="gini = 0.0\nsamples = 63\nvalue = [63, 0, 0, 0]\nclass = no data", fillcolor="#e58139"] ;
99 -> 111 ;
112 [label="Abdominal pain [HP_0002027] <= -0.25\ngini = 0.029\nsamples = 67\nvalue = [66, 0, 1, 0]\nclass = no data", fillcolor="#e5833c"] ;
98 -> 112 ;
113 [label="Fatigue [SYMP_0019177] <= -0.25\ngini = 0.044\nsamples = 44\nvalue = [43, 0, 1, 0]\nclass = no data", fillcolor="#e6843e"] ;
112 -> 113 ;
114 [label="gini = 0.0\nsamples = 4\nvalue = [4, 0, 0, 0]\nclass = no data", fillcolor="#e58139"] ;
113 -> 114 ;
115 [label="Visit type [EUPATH_0000311] <= 0.0\ngini = 0.049\nsamples = 40\nvalue = [39, 0, 1, 0]\nclass = no data", fillcolor="#e6843e"] ;
113 -> 115 ;
116 [label="Diarrhea [DOID_13250] <= 0.0\ngini = 0.053\nsamples = 37\nvalue = [36, 0, 1, 0]\nclass = no data", fillcolor="#e6843e"] ;
115 -> 116 ;
117 [label="gini = 0.054\nsamples = 36\nvalue = [35, 0, 1, 0]\nclass = no data", fillcolor="#e6853f"] ;
116 -> 117 ;
118 [label="gini = 0.0\nsamples = 1\nvalue = [1, 0, 0, 0]\nclass = no data", fillcolor="#e58139"] ;
116 -> 118 ;
119 [label="gini = 0.0\nsamples = 3\nvalue = [3, 0, 0, 0]\nclass = no data", fillcolor="#e58139"] ;
115 -> 119 ;
120 [label="gini = 0.0\nsamples = 23\nvalue = [23, 0, 0, 0]\nclass = no data", fillcolor="#e58139"] ;
112 -> 120 ;
121 [label="gini = 0.0\nsamples = 284\nvalue = [284, 0, 0, 0]\nclass = no data", fillcolor="#e58139"] ;
97 -> 121 ;
122 [label="Abdominal pain [HP_0002027] <= -0.25\ngini = 0.03\nsamples = 1841\nvalue = [1813, 12, 13, 3]\nclass = no data", fillcolor="#e5833c"] ;
2 -> 122 ;
123 [label="Cough [SYMP_0000614] <= 0.0\ngini = 0.037\nsamples = 1281\nvalue = [1257, 10, 11, 3]\nclass = no data", fillcolor="#e5833d"] ;
122 -> 123 ;
124 [label="Visit type [EUPATH_0000311] <= 0.0\ngini = 0.044\nsamples = 802\nvalue = [784, 10, 7, 1]\nclass = no data", fillcolor="#e6843e"] ;
123 -> 124 ;
125 [label="Anorexia [SYMP_0000523] <= 0.0\ngini = 0.05\nsamples = 709\nvalue = [691, 10, 7, 1]\nclass = no data", fillcolor="#e6843e"] ;
124 -> 125 ;
126 [label="Fatigue [SYMP_0019177] <= -0.25\ngini = 0.043\nsamples = 596\nvalue = [583, 7, 5, 1]\nclass = no data", fillcolor="#e6843d"] ;
125 -> 126 ;
127 [label="Subjective fever [EUPATH_0000100] <= 0.0\ngini = 0.051\nsamples = 504\nvalue = [491, 7, 5, 1]\nclass = no data", fillcolor="#e6843e"] ;
126 -> 127 ;
128 [label="gini = 0.0\nsamples = 29\nvalue = [29, 0, 0, 0]\nclass = no data", fillcolor="#e58139"] ;
127 -> 128 ;
129 [label="Diarrhea [DOID_13250] <= 0.0\ngini = 0.054\nsamples = 475\nvalue = [462, 7, 5, 1]\nclass = no data", fillcolor="#e6843e"] ;
127 -> 129 ;
130 [label="Joint pains [SYMP_0000064] <= -0.25\ngini = 0.047\nsamples = 373\nvalue = [364, 5, 4, 0]\nclass = no data", fillcolor="#e6843e"] ;
129 -> 130 ;
131 [label="ITN last night [EUPATH_0000216] <= 0.0\ngini = 0.049\nsamples = 362\nvalue = [353, 5, 4, 0]\nclass = no data", fillcolor="#e6843e"] ;
130 -> 131 ;
132 [label="gini = 0.0\nsamples = 5\nvalue = [5, 0, 0, 0]\nclass = no data", fillcolor="#e58139"] ;
131 -> 132 ;
133 [label="Muscle aches [EUPATH_0000252] <= -0.25\ngini = 0.049\nsamples = 357\nvalue = [348, 5, 4, 0]\nclass = no data", fillcolor="#e6843e"] ;
131 -> 133 ;
134 [label="Headache [HP_0002315] <= 0.0\ngini = 0.05\nsamples = 353\nvalue = [344, 5, 4, 0]\nclass = no data", fillcolor="#e6843e"] ;
133 -> 134 ;
135 [label="gini = 0.051\nsamples = 271\nvalue = [264, 4, 3, 0]\nclass = no data", fillcolor="#e6843e"] ;
134 -> 135 ;
136 [label="gini = 0.048\nsamples = 82\nvalue = [80, 1, 1, 0]\nclass = no data", fillcolor="#e6843e"] ;
134 -> 136 ;
137 [label="gini = 0.0\nsamples = 4\nvalue = [4, 0, 0, 0]\nclass = no data", fillcolor="#e58139"] ;
133 -> 137 ;
138 [label="gini = 0.0\nsamples = 11\nvalue = [11, 0, 0, 0]\nclass = no data", fillcolor="#e58139"] ;
130 -> 138 ;
139 [label="Headache [HP_0002315] <= 0.0\ngini = 0.076\nsamples = 102\nvalue = [98, 2, 1, 1]\nclass = no data", fillcolor="#e68641"] ;
129 -> 139 ;
140 [label="Muscle aches [EUPATH_0000252] <= -0.25\ngini = 0.083\nsamples = 93\nvalue = [89, 2, 1, 1]\nclass = no data", fillcolor="#e68742"] ;
139 -> 140 ;
141 [label="ITN last night [EUPATH_0000216] <= 0.0\ngini = 0.086\nsamples = 90\nvalue = [86, 2, 1, 1]\nclass = no data", fillcolor="#e68742"] ;
140 -> 141 ;
142 [label="gini = 0.0\nsamples = 1\nvalue = [1, 0, 0, 0]\nclass = no data", fillcolor="#e58139"] ;
141 -> 142 ;
143 [label="gini = 0.087\nsamples = 89\nvalue = [85, 2, 1, 1]\nclass = no data", fillcolor="#e68742"] ;
141 -> 143 ;
144 [label="gini = 0.0\nsamples = 3\nvalue = [3, 0, 0, 0]\nclass = no data", fillcolor="#e58139"] ;
140 -> 144 ;
145 [label="gini = 0.0\nsamples = 9\nvalue = [9, 0, 0, 0]\nclass = no data", fillcolor="#e58139"] ;
139 -> 145 ;
146 [label="gini = 0.0\nsamples = 92\nvalue = [92, 0, 0, 0]\nclass = no data", fillcolor="#e58139"] ;
126 -> 146 ;
147 [label="Headache [HP_0002315] <= -0.25\ngini = 0.086\nsamples = 113\nvalue = [108, 3, 2, 0]\nclass = no data", fillcolor="#e68742"] ;
125 -> 147 ;
148 [label="Diarrhea [DOID_13250] <= 0.0\ngini = 0.055\nsamples = 71\nvalue = [69, 1, 1, 0]\nclass = no data", fillcolor="#e6853f"] ;
147 -> 148 ;
149 [label="Fatigue [SYMP_0019177] <= -0.25\ngini = 0.035\nsamples = 56\nvalue = [55, 1, 0, 0]\nclass = no data", fillcolor="#e5833d"] ;
148 -> 149 ;
150 [label="Muscle aches [EUPATH_0000252] <= -0.25\ngini = 0.051\nsamples = 38\nvalue = [37, 1, 0, 0]\nclass = no data", fillcolor="#e6843e"] ;
149 -> 150 ;
151 [label="gini = 0.054\nsamples = 36\nvalue = [35, 1, 0, 0]\nclass = no data", fillcolor="#e6853f"] ;
150 -> 151 ;
152 [label="gini = 0.0\nsamples = 2\nvalue = [2, 0, 0, 0]\nclass = no data", fillcolor="#e58139"] ;
150 -> 152 ;
153 [label="gini = 0.0\nsamples = 18\nvalue = [18, 0, 0, 0]\nclass = no data", fillcolor="#e58139"] ;
149 -> 153 ;
154 [label="Fatigue [SYMP_0019177] <= 0.0\ngini = 0.124\nsamples = 15\nvalue = [14, 0, 1, 0]\nclass = no data", fillcolor="#e78a47"] ;
148 -> 154 ;
155 [label="Subjective fever [EUPATH_0000100] <= 0.0\ngini = 0.153\nsamples = 12\nvalue = [11, 0, 1, 0]\nclass = no data", fillcolor="#e78c4b"] ;
154 -> 155 ;
156 [label="gini = 0.0\nsamples = 3\nvalue = [3, 0, 0, 0]\nclass = no data", fillcolor="#e58139"] ;
155 -> 156 ;
157 [label="gini = 0.198\nsamples = 9\nvalue = [8, 0, 1, 0]\nclass = no data", fillcolor="#e89152"] ;
155 -> 157 ;
158 [label="gini = 0.0\nsamples = 3\nvalue = [3, 0, 0, 0]\nclass = no data", fillcolor="#e58139"] ;
154 -> 158 ;
159 [label="Headache [HP_0002315] <= 0.75\ngini = 0.135\nsamples = 42\nvalue = [39, 2, 1, 0]\nclass = no data", fillcolor="#e78a48"] ;
147 -> 159 ;
160 [label="Fatigue [SYMP_0019177] <= -0.25\ngini = 0.625\nsamples = 4\nvalue = [2, 1, 1, 0]\nclass = no data", fillcolor="#f6d5bd"] ;
159 -> 160 ;
161 [label="gini = 0.5\nsamples = 2\nvalue = [1, 1, 0, 0]\nclass = no data", fillcolor="#ffffff"] ;
160 -> 161 ;
162 [label="gini = 0.5\nsamples = 2\nvalue = [1, 0, 1, 0]\nclass = no data", fillcolor="#ffffff"] ;
160 -> 162 ;
163 [label="Fatigue [SYMP_0019177] <= 0.75\ngini = 0.051\nsamples = 38\nvalue = [37, 1, 0, 0]\nclass = no data", fillcolor="#e6843e"] ;
159 -> 163 ;
164 [label="gini = 0.0\nsamples = 23\nvalue = [23, 0, 0, 0]\nclass = no data", fillcolor="#e58139"] ;
163 -> 164 ;
165 [label="Joint pains [SYMP_0000064] <= 0.0\ngini = 0.124\nsamples = 15\nvalue = [14, 1, 0, 0]\nclass = no data", fillcolor="#e78a47"] ;
163 -> 165 ;
166 [label="Diarrhea [DOID_13250] <= 0.0\ngini = 0.198\nsamples = 9\nvalue = [8, 1, 0, 0]\nclass = no data", fillcolor="#e89152"] ;
165 -> 166 ;
167 [label="gini = 0.219\nsamples = 8\nvalue = [7, 1, 0, 0]\nclass = no data", fillcolor="#e99355"] ;
166 -> 167 ;
168 [label="gini = 0.0\nsamples = 1\nvalue = [1, 0, 0, 0]\nclass = no data", fillcolor="#e58139"] ;
166 -> 168 ;
169 [label="gini = 0.0\nsamples = 6\nvalue = [6, 0, 0, 0]\nclass = no data", fillcolor="#e58139"] ;
165 -> 169 ;
170 [label="gini = 0.0\nsamples = 93\nvalue = [93, 0, 0, 0]\nclass = no data", fillcolor="#e58139"] ;
124 -> 170 ;
171 [label="Anorexia [SYMP_0000523] <= 0.0\ngini = 0.025\nsamples = 479\nvalue = [473, 0, 4, 2]\nclass = no data", fillcolor="#e5833c"] ;
123 -> 171 ;
172 [label="Headache [HP_0002315] <= 0.75\ngini = 0.03\nsamples = 396\nvalue = [390, 0, 4, 2]\nclass = no data", fillcolor="#e5833c"] ;
171 -> 172 ;
173 [label="Headache [HP_0002315] <= -0.25\ngini = 0.036\nsamples = 332\nvalue = [326, 0, 4, 2]\nclass = no data", fillcolor="#e5833d"] ;
172 -> 173 ;
174 [label="Fatigue [SYMP_0019177] <= -0.25\ngini = 0.031\nsamples = 319\nvalue = [314, 0, 3, 2]\nclass = no data", fillcolor="#e5833c"] ;
173 -> 174 ;
175 [label="Muscle aches [EUPATH_0000252] <= -0.25\ngini = 0.04\nsamples = 244\nvalue = [239, 0, 3, 2]\nclass = no data", fillcolor="#e6843d"] ;
174 -> 175 ;
176 [label="Diarrhea [DOID_13250] <= 0.0\ngini = 0.033\nsamples = 239\nvalue = [235, 0, 2, 2]\nclass = no data", fillcolor="#e5833c"] ;
175 -> 176 ;
177 [label="Visit type [EUPATH_0000311] <= 0.0\ngini = 0.041\nsamples = 193\nvalue = [189, 0, 2, 2]\nclass = no data", fillcolor="#e6843d"] ;
176 -> 177 ;
178 [label="Subjective fever [EUPATH_0000100] <= 0.0\ngini = 0.044\nsamples = 179\nvalue = [175, 0, 2, 2]\nclass = no data", fillcolor="#e6843d"] ;
177 -> 178 ;
179 [label="gini = 0.0\nsamples = 11\nvalue = [11, 0, 0, 0]\nclass = no data", fillcolor="#e58139"] ;
178 -> 179 ;
180 [label="ITN last night [EUPATH_0000216] <= 0.0\ngini = 0.047\nsamples = 168\nvalue = [164, 0, 2, 2]\nclass = no data", fillcolor="#e6843e"] ;
178 -> 180 ;
181 [label="gini = 0.0\nsamples = 2\nvalue = [2, 0, 0, 0]\nclass = no data", fillcolor="#e58139"] ;
180 -> 181 ;
182 [label="Joint pains [SYMP_0000064] <= 0.0\ngini = 0.047\nsamples = 166\nvalue = [162, 0, 2, 2]\nclass = no data", fillcolor="#e6843e"] ;
180 -> 182 ;
183 [label="gini = 0.048\nsamples = 165\nvalue = [161, 0, 2, 2]\nclass = no data", fillcolor="#e6843e"] ;
182 -> 183 ;
184 [label="gini = 0.0\nsamples = 1\nvalue = [1, 0, 0, 0]\nclass = no data", fillcolor="#e58139"] ;
182 -> 184 ;
185 [label="gini = 0.0\nsamples = 14\nvalue = [14, 0, 0, 0]\nclass = no data", fillcolor="#e58139"] ;
177 -> 185 ;
186 [label="gini = 0.0\nsamples = 46\nvalue = [46, 0, 0, 0]\nclass = no data", fillcolor="#e58139"] ;
176 -> 186 ;
187 [label="Joint pains [SYMP_0000064] <= -0.25\ngini = 0.32\nsamples = 5\nvalue = [4, 0, 1, 0]\nclass = no data", fillcolor="#eca06a"] ;
175 -> 187 ;
188 [label="Diarrhea [DOID_13250] <= 0.0\ngini = 0.444\nsamples = 3\nvalue = [2, 0, 1, 0]\nclass = no data", fillcolor="#f2c09c"] ;
187 -> 188 ;
189 [label="gini = 0.0\nsamples = 1\nvalue = [0, 0, 1, 0]\nclass = only parasite density > 500,000", fillcolor="#399de5"] ;
188 -> 189 ;
190 [label="gini = 0.0\nsamples = 2\nvalue = [2, 0, 0, 0]\nclass = no data", fillcolor="#e58139"] ;
188 -> 190 ;
191 [label="gini = 0.0\nsamples = 2\nvalue = [2, 0, 0, 0]\nclass = no data", fillcolor="#e58139"] ;
187 -> 191 ;
192 [label="gini = 0.0\nsamples = 75\nvalue = [75, 0, 0, 0]\nclass = no data", fillcolor="#e58139"] ;
174 -> 192 ;
193 [label="Fatigue [SYMP_0019177] <= -0.25\ngini = 0.142\nsamples = 13\nvalue = [12, 0, 1, 0]\nclass = no data", fillcolor="#e78c49"] ;
173 -> 193 ;
194 [label="gini = 0.0\nsamples = 8\nvalue = [8, 0, 0, 0]\nclass = no data", fillcolor="#e58139"] ;
193 -> 194 ;
195 [label="Subjective fever [EUPATH_0000100] <= 0.0\ngini = 0.32\nsamples = 5\nvalue = [4, 0, 1, 0]\nclass = no data", fillcolor="#eca06a"] ;
193 -> 195 ;
196 [label="gini = 0.0\nsamples = 1\nvalue = [1, 0, 0, 0]\nclass = no data", fillcolor="#e58139"] ;
195 -> 196 ;
197 [label="Diarrhea [DOID_13250] <= 0.0\ngini = 0.375\nsamples = 4\nvalue = [3, 0, 1, 0]\nclass = no data", fillcolor="#eeab7b"] ;
195 -> 197 ;
198 [label="gini = 0.444\nsamples = 3\nvalue = [2, 0, 1, 0]\nclass = no data", fillcolor="#f2c09c"] ;
197 -> 198 ;
199 [label="gini = 0.0\nsamples = 1\nvalue = [1, 0, 0, 0]\nclass = no data", fillcolor="#e58139"] ;
197 -> 199 ;
200 [label="gini = 0.0\nsamples = 64\nvalue = [64, 0, 0, 0]\nclass = no data", fillcolor="#e58139"] ;
172 -> 200 ;
201 [label="gini = 0.0\nsamples = 83\nvalue = [83, 0, 0, 0]\nclass = no data", fillcolor="#e58139"] ;
171 -> 201 ;
202 [label="Fatigue [SYMP_0019177] <= 0.75\ngini = 0.014\nsamples = 560\nvalue = [556, 2, 2, 0]\nclass = no data", fillcolor="#e5823a"] ;
122 -> 202 ;
203 [label="Cough [SYMP_0000614] <= 0.0\ngini = 0.008\nsamples = 503\nvalue = [501, 2, 0, 0]\nclass = no data", fillcolor="#e5823a"] ;
202 -> 203 ;
204 [label="gini = 0.0\nsamples = 289\nvalue = [289, 0, 0, 0]\nclass = no data", fillcolor="#e58139"] ;
203 -> 204 ;
205 [label="Anorexia [SYMP_0000523] <= 0.0\ngini = 0.019\nsamples = 214\nvalue = [212, 2, 0, 0]\nclass = no data", fillcolor="#e5823b"] ;
203 -> 205 ;
206 [label="Abdominal pain [HP_0002027] <= 0.75\ngini = 0.028\nsamples = 140\nvalue = [138, 2, 0, 0]\nclass = no data", fillcolor="#e5833c"] ;
205 -> 206 ;
207 [label="Diarrhea [DOID_13250] <= 0.0\ngini = 0.042\nsamples = 93\nvalue = [91, 2, 0, 0]\nclass = no data", fillcolor="#e6843d"] ;
206 -> 207 ;
208 [label="Visit type [EUPATH_0000311] <= 0.0\ngini = 0.049\nsamples = 80\nvalue = [78, 2, 0, 0]\nclass = no data", fillcolor="#e6843e"] ;
207 -> 208 ;
209 [label="Headache [HP_0002315] <= -0.25\ngini = 0.051\nsamples = 76\nvalue = [74, 2, 0, 0]\nclass = no data", fillcolor="#e6843e"] ;
208 -> 209 ;
210 [label="gini = 0.0\nsamples = 2\nvalue = [2, 0, 0, 0]\nclass = no data", fillcolor="#e58139"] ;
209 -> 210 ;
211 [label="Fatigue [SYMP_0019177] <= -0.25\ngini = 0.053\nsamples = 74\nvalue = [72, 2, 0, 0]\nclass = no data", fillcolor="#e6843e"] ;
209 -> 211 ;
212 [label="gini = 0.0\nsamples = 2\nvalue = [2, 0, 0, 0]\nclass = no data", fillcolor="#e58139"] ;
211 -> 212 ;
213 [label="Headache [HP_0002315] <= 0.75\ngini = 0.054\nsamples = 72\nvalue = [70, 2, 0, 0]\nclass = no data", fillcolor="#e6853f"] ;
211 -> 213 ;
214 [label="Febrile [EUPATH_0000097] <= 0.0\ngini = 0.055\nsamples = 71\nvalue = [69, 2, 0, 0]\nclass = no data", fillcolor="#e6853f"] ;
213 -> 214 ;
215 [label="gini = 0.0\nsamples = 1\nvalue = [1, 0, 0, 0]\nclass = no data", fillcolor="#e58139"] ;
214 -> 215 ;
216 [label="gini = 0.056\nsamples = 70\nvalue = [68, 2, 0, 0]\nclass = no data", fillcolor="#e6853f"] ;
214 -> 216 ;
217 [label="gini = 0.0\nsamples = 1\nvalue = [1, 0, 0, 0]\nclass = no data", fillcolor="#e58139"] ;
213 -> 217 ;
218 [label="gini = 0.0\nsamples = 4\nvalue = [4, 0, 0, 0]\nclass = no data", fillcolor="#e58139"] ;
208 -> 218 ;
219 [label="gini = 0.0\nsamples = 13\nvalue = [13, 0, 0, 0]\nclass = no data", fillcolor="#e58139"] ;
207 -> 219 ;
220 [label="gini = 0.0\nsamples = 47\nvalue = [47, 0, 0, 0]\nclass = no data", fillcolor="#e58139"] ;
206 -> 220 ;
221 [label="gini = 0.0\nsamples = 74\nvalue = [74, 0, 0, 0]\nclass = no data", fillcolor="#e58139"] ;
205 -> 221 ;
222 [label="Visit type [EUPATH_0000311] <= 0.0\ngini = 0.068\nsamples = 57\nvalue = [55, 0, 2, 0]\nclass = no data", fillcolor="#e68640"] ;
202 -> 222 ;
223 [label="Cough [SYMP_0000614] <= 0.0\ngini = 0.035\nsamples = 56\nvalue = [55, 0, 1, 0]\nclass = no data", fillcolor="#e5833d"] ;
222 -> 223 ;
224 [label="gini = 0.0\nsamples = 44\nvalue = [44, 0, 0, 0]\nclass = no data", fillcolor="#e58139"] ;
223 -> 224 ;
225 [label="Headache [HP_0002315] <= -0.25\ngini = 0.153\nsamples = 12\nvalue = [11, 0, 1, 0]\nclass = no data", fillcolor="#e78c4b"] ;
223 -> 225 ;
226 [label="Subjective fever [EUPATH_0000100] <= 0.0\ngini = 0.5\nsamples = 2\nvalue = [1, 0, 1, 0]\nclass = no data", fillcolor="#ffffff"] ;
225 -> 226 ;
227 [label="gini = 0.0\nsamples = 1\nvalue = [1, 0, 0, 0]\nclass = no data", fillcolor="#e58139"] ;
226 -> 227 ;
228 [label="gini = 0.0\nsamples = 1\nvalue = [0, 0, 1, 0]\nclass = only parasite density > 500,000", fillcolor="#399de5"] ;
226 -> 228 ;
229 [label="gini = 0.0\nsamples = 10\nvalue = [10, 0, 0, 0]\nclass = no data", fillcolor="#e58139"] ;
225 -> 229 ;
230 [label="gini = 0.0\nsamples = 1\nvalue = [0, 0, 1, 0]\nclass = only parasite density > 500,000", fillcolor="#399de5"] ;
222 -> 230 ;
231 [label="Muscle aches [EUPATH_0000252] <= -0.25\ngini = 0.611\nsamples = 6\nvalue = [3, 1, 0, 2]\nclass = no data", fillcolor="#f8e0ce"] ;
1 -> 231 ;
232 [label="Vomiting [HP_0002013] <= 0.0\ngini = 0.375\nsamples = 4\nvalue = [3, 1, 0, 0]\nclass = no data", fillcolor="#eeab7b"] ;
231 -> 232 ;
233 [label="gini = 0.0\nsamples = 3\nvalue = [3, 0, 0, 0]\nclass = no data", fillcolor="#e58139"] ;
232 -> 233 ;
234 [label="gini = 0.0\nsamples = 1\nvalue = [0, 1, 0, 0]\nclass = only danger signs", fillcolor="#47e539"] ;
232 -> 234 ;
235 [label="gini = 0.0\nsamples = 2\nvalue = [0, 0, 0, 2]\nclass = severe malaria", fillcolor="#d739e5"] ;
231 -> 235 ;
236 [label="Vomiting [HP_0002013] <= 0.0\ngini = 0.597\nsamples = 39\nvalue = [22, 10, 2, 5]\nclass = no data", fillcolor="#f4cbad"] ;
0 -> 236 [labeldistance=2.5, labelangle=-45, headlabel="False"] ;
237 [label="Cough [SYMP_0000614] <= 0.0\ngini = 0.49\nsamples = 29\nvalue = [20, 4, 2, 3]\nclass = no data", fillcolor="#eeae80"] ;
236 -> 237 ;
238 [label="Visit type [EUPATH_0000311] <= 0.0\ngini = 0.575\nsamples = 23\nvalue = [14, 4, 2, 3]\nclass = no data", fillcolor="#f1bd97"] ;
237 -> 238 ;
239 [label="Headache [HP_0002315] <= -0.25\ngini = 0.512\nsamples = 21\nvalue = [14, 3, 1, 3]\nclass = no data", fillcolor="#efb286"] ;
238 -> 239 ;
240 [label="Anorexia [SYMP_0000523] <= 0.0\ngini = 0.588\nsamples = 17\nvalue = [10, 3, 1, 3]\nclass = no data", fillcolor="#f2c09c"] ;
239 -> 240 ;
241 [label="gini = 0.555\nsamples = 16\nvalue = [10, 2, 1, 3]\nclass = no data", fillcolor="#f1bb94"] ;
240 -> 241 ;
242 [label="gini = 0.0\nsamples = 1\nvalue = [0, 1, 0, 0]\nclass = only danger signs", fillcolor="#47e539"] ;
240 -> 242 ;
243 [label="gini = 0.0\nsamples = 4\nvalue = [4, 0, 0, 0]\nclass = no data", fillcolor="#e58139"] ;
239 -> 243 ;
244 [label="Muscle aches [EUPATH_0000252] <= -0.25\ngini = 0.5\nsamples = 2\nvalue = [0, 1, 1, 0]\nclass = only danger signs", fillcolor="#ffffff"] ;
238 -> 244 ;
245 [label="gini = 0.0\nsamples = 1\nvalue = [0, 0, 1, 0]\nclass = only parasite density > 500,000", fillcolor="#399de5"] ;
244 -> 245 ;
246 [label="gini = 0.0\nsamples = 1\nvalue = [0, 1, 0, 0]\nclass = only danger signs", fillcolor="#47e539"] ;
244 -> 246 ;
247 [label="gini = 0.0\nsamples = 6\nvalue = [6, 0, 0, 0]\nclass = no data", fillcolor="#e58139"] ;
237 -> 247 ;
248 [label="Abdominal pain [HP_0002027] <= -0.25\ngini = 0.56\nsamples = 10\nvalue = [2, 6, 0, 2]\nclass = only danger signs", fillcolor="#a3f29c"] ;
236 -> 248 ;
249 [label="Cough [SYMP_0000614] <= 0.0\ngini = 0.667\nsamples = 6\nvalue = [2, 2, 0, 2]\nclass = no data", fillcolor="#ffffff"] ;
248 -> 249 ;
250 [label="Diarrhea [DOID_13250] <= 0.0\ngini = 0.5\nsamples = 4\nvalue = [0, 2, 0, 2]\nclass = only danger signs", fillcolor="#ffffff"] ;
249 -> 250 ;
251 [label="gini = 0.444\nsamples = 3\nvalue = [0, 1, 0, 2]\nclass = severe malaria", fillcolor="#eb9cf2"] ;
250 -> 251 ;
252 [label="gini = 0.0\nsamples = 1\nvalue = [0, 1, 0, 0]\nclass = only danger signs", fillcolor="#47e539"] ;
250 -> 252 ;
253 [label="gini = 0.0\nsamples = 2\nvalue = [2, 0, 0, 0]\nclass = no data", fillcolor="#e58139"] ;
249 -> 253 ;
254 [label="gini = 0.0\nsamples = 4\nvalue = [0, 4, 0, 0]\nclass = only danger signs", fillcolor="#47e539"] ;
248 -> 254 ;
}